digraph Tree {
node [shape=box] ;
0 [label="X[17] <= -0.2228\ngini = 0.747\nsamples = 930\nvalue = [267, 241, 197, 225]"] ;
1 [label="X[7] <= 366.1921\ngini = 0.6896\nsamples = 711\nvalue = [262, 32, 196, 221]"] ;
0 -> 1 [labeldistance=2.5, labelangle=45, headlabel="True"] ;
2 [label="X[1] <= 96.9322\ngini = 0.5525\nsamples = 420\nvalue = [218, 6, 176, 20]"] ;
1 -> 2 ;
3 [label="X[3] <= 37.6419\ngini = 0.55\nsamples = 280\nvalue = [106, 2, 154, 18]"] ;
2 -> 3 ;
4 [label="X[0] <= 98.1711\ngini = 0.4006\nsamples = 190\nvalue = [45, 2, 140, 3]"] ;
3 -> 4 ;
5 [label="X[13] <= 8.3301\ngini = 0.2579\nsamples = 155\nvalue = [20, 1, 132, 2]"] ;
4 -> 5 ;
6 [label="X[7] <= 73.111\ngini = 0.1578\nsamples = 141\nvalue = [10, 1, 129, 1]"] ;
5 -> 6 ;
7 [label="X[17] <= -0.4824\ngini = 0.2449\nsamples = 7\nvalue = [6, 0, 1, 0]"] ;
6 -> 7 ;
8 [label="gini = 0.0\nsamples = 1\nvalue = [0, 0, 1, 0]"] ;
7 -> 8 ;
9 [label="gini = 0.0\nsamples = 6\nvalue = [6, 0, 0, 0]"] ;
7 -> 9 ;
10 [label="X[17] <= -0.27\ngini = 0.0865\nsamples = 134\nvalue = [4, 1, 128, 1]"] ;
6 -> 10 ;
11 [label="X[5] <= 85.1094\ngini = 0.0588\nsamples = 132\nvalue = [4, 0, 128, 0]"] ;
10 -> 11 ;
12 [label="X[10] <= 0.1982\ngini = 0.0448\nsamples = 131\nvalue = [3, 0, 128, 0]"] ;
11 -> 12 ;
13 [label="gini = 0.0\nsamples = 1\nvalue = [1, 0, 0, 0]"] ;
12 -> 13 ;
14 [label="X[6] <= 0.0112\ngini = 0.0303\nsamples = 130\nvalue = [2, 0, 128, 0]"] ;
12 -> 14 ;
15 [label="X[5] <= 36.1546\ngini = 0.0155\nsamples = 128\nvalue = [1, 0, 127, 0]"] ;
14 -> 15 ;
16 [label="X[5] <= 35.5311\ngini = 0.18\nsamples = 10\nvalue = [1, 0, 9, 0]"] ;
15 -> 16 ;
17 [label="gini = 0.0\nsamples = 9\nvalue = [0, 0, 9, 0]"] ;
16 -> 17 ;
18 [label="gini = 0.0\nsamples = 1\nvalue = [1, 0, 0, 0]"] ;
16 -> 18 ;
19 [label="gini = 0.0\nsamples = 118\nvalue = [0, 0, 118, 0]"] ;
15 -> 19 ;
20 [label="X[13] <= 6.9564\ngini = 0.5\nsamples = 2\nvalue = [1, 0, 1, 0]"] ;
14 -> 20 ;
21 [label="gini = 0.0\nsamples = 1\nvalue = [0, 0, 1, 0]"] ;
20 -> 21 ;
22 [label="gini = 0.0\nsamples = 1\nvalue = [1, 0, 0, 0]"] ;
20 -> 22 ;
23 [label="gini = 0.0\nsamples = 1\nvalue = [1, 0, 0, 0]"] ;
11 -> 23 ;
24 [label="X[9] <= 2309.9377\ngini = 0.5\nsamples = 2\nvalue = [0, 1, 0, 1]"] ;
10 -> 24 ;
25 [label="gini = 0.0\nsamples = 1\nvalue = [0, 0, 0, 1]"] ;
24 -> 25 ;
26 [label="gini = 0.0\nsamples = 1\nvalue = [0, 1, 0, 0]"] ;
24 -> 26 ;
27 [label="X[0] <= 81.9088\ngini = 0.4388\nsamples = 14\nvalue = [10, 0, 3, 1]"] ;
5 -> 27 ;
28 [label="X[1] <= 65.529\ngini = 0.6122\nsamples = 7\nvalue = [3, 0, 3, 1]"] ;
27 -> 28 ;
29 [label="gini = 0.0\nsamples = 2\nvalue = [0, 0, 2, 0]"] ;
28 -> 29 ;
30 [label="X[2] <= 140.6278\ngini = 0.56\nsamples = 5\nvalue = [3, 0, 1, 1]"] ;
28 -> 30 ;
31 [label="gini = 0.0\nsamples = 3\nvalue = [3, 0, 0, 0]"] ;
30 -> 31 ;
32 [label="X[9] <= 3436.5967\ngini = 0.5\nsamples = 2\nvalue = [0, 0, 1, 1]"] ;
30 -> 32 ;
33 [label="gini = 0.0\nsamples = 1\nvalue = [0, 0, 1, 0]"] ;
32 -> 33 ;
34 [label="gini = 0.0\nsamples = 1\nvalue = [0, 0, 0, 1]"] ;
32 -> 34 ;
35 [label="gini = 0.0\nsamples = 7\nvalue = [7, 0, 0, 0]"] ;
27 -> 35 ;
36 [label="X[5] <= 57.9027\ngini = 0.4359\nsamples = 35\nvalue = [25, 1, 8, 1]"] ;
4 -> 36 ;
37 [label="X[1] <= 95.3889\ngini = 0.1528\nsamples = 24\nvalue = [22, 0, 2, 0]"] ;
36 -> 37 ;
38 [label="X[10] <= 0.4627\ngini = 0.0832\nsamples = 23\nvalue = [22, 0, 1, 0]"] ;
37 -> 38 ;
39 [label="gini = 0.0\nsamples = 19\nvalue = [19, 0, 0, 0]"] ;
38 -> 39 ;
40 [label="X[6] <= 0.0022\ngini = 0.375\nsamples = 4\nvalue = [3, 0, 1, 0]"] ;
38 -> 40 ;
41 [label="gini = 0.0\nsamples = 1\nvalue = [0, 0, 1, 0]"] ;
40 -> 41 ;
42 [label="gini = 0.0\nsamples = 3\nvalue = [3, 0, 0, 0]"] ;
40 -> 42 ;
43 [label="gini = 0.0\nsamples = 1\nvalue = [0, 0, 1, 0]"] ;
37 -> 43 ;
44 [label="X[0] <= 112.9724\ngini = 0.6116\nsamples = 11\nvalue = [3, 1, 6, 1]"] ;
36 -> 44 ;
45 [label="X[11] <= 227.2454\ngini = 0.4063\nsamples = 8\nvalue = [0, 1, 6, 1]"] ;
44 -> 45 ;
46 [label="X[14] <= 11.4836\ngini = 0.5\nsamples = 2\nvalue = [0, 1, 0, 1]"] ;
45 -> 46 ;
47 [label="gini = 0.0\nsamples = 1\nvalue = [0, 0, 0, 1]"] ;
46 -> 47 ;
48 [label="gini = 0.0\nsamples = 1\nvalue = [0, 1, 0, 0]"] ;
46 -> 48 ;
49 [label="gini = 0.0\nsamples = 6\nvalue = [0, 0, 6, 0]"] ;
45 -> 49 ;
50 [label="gini = 0.0\nsamples = 3\nvalue = [3, 0, 0, 0]"] ;
44 -> 50 ;
51 [label="X[7] <= 224.7061\ngini = 0.4886\nsamples = 90\nvalue = [61, 0, 14, 15]"] ;
3 -> 51 ;
52 [label="X[4] <= 60.7764\ngini = 0.2158\nsamples = 58\nvalue = [51, 0, 6, 1]"] ;
51 -> 52 ;
53 [label="X[11] <= 395.4025\ngini = 0.1679\nsamples = 55\nvalue = [50, 0, 4, 1]"] ;
52 -> 53 ;
54 [label="X[11] <= 124.5448\ngini = 0.1392\nsamples = 54\nvalue = [50, 0, 3, 1]"] ;
53 -> 54 ;
55 [label="X[9] <= 1653.9912\ngini = 0.5\nsamples = 2\nvalue = [1, 0, 0, 1]"] ;
54 -> 55 ;
56 [label="gini = 0.0\nsamples = 1\nvalue = [0, 0, 0, 1]"] ;
55 -> 56 ;
57 [label="gini = 0.0\nsamples = 1\nvalue = [1, 0, 0, 0]"] ;
55 -> 57 ;
58 [label="X[4] <= 21.5253\ngini = 0.1087\nsamples = 52\nvalue = [49, 0, 3, 0]"] ;
54 -> 58 ;
59 [label="X[8] <= 0.9813\ngini = 0.5\nsamples = 2\nvalue = [1, 0, 1, 0]"] ;
58 -> 59 ;
60 [label="gini = 0.0\nsamples = 1\nvalue = [0, 0, 1, 0]"] ;
59 -> 60 ;
61 [label="gini = 0.0\nsamples = 1\nvalue = [1, 0, 0, 0]"] ;
59 -> 61 ;
62 [label="X[6] <= 0.0004\ngini = 0.0768\nsamples = 50\nvalue = [48, 0, 2, 0]"] ;
58 -> 62 ;
63 [label="X[12] <= 14569.9922\ngini = 0.4444\nsamples = 3\nvalue = [2, 0, 1, 0]"] ;
62 -> 63 ;
64 [label="gini = 0.0\nsamples = 2\nvalue = [2, 0, 0, 0]"] ;
63 -> 64 ;
65 [label="gini = 0.0\nsamples = 1\nvalue = [0, 0, 1, 0]"] ;
63 -> 65 ;
66 [label="X[10] <= 0.515\ngini = 0.0416\nsamples = 47\nvalue = [46, 0, 1, 0]"] ;
62 -> 66 ;
67 [label="gini = 0.0\nsamples = 43\nvalue = [43, 0, 0, 0]"] ;
66 -> 67 ;
68 [label="X[9] <= 1188.8766\ngini = 0.375\nsamples = 4\nvalue = [3, 0, 1, 0]"] ;
66 -> 68 ;
69 [label="gini = 0.0\nsamples = 3\nvalue = [3, 0, 0, 0]"] ;
68 -> 69 ;
70 [label="gini = 0.0\nsamples = 1\nvalue = [0, 0, 1, 0]"] ;
68 -> 70 ;
71 [label="gini = 0.0\nsamples = 1\nvalue = [0, 0, 1, 0]"] ;
53 -> 71 ;
72 [label="X[18] <= 0.9975\ngini = 0.4444\nsamples = 3\nvalue = [1, 0, 2, 0]"] ;
52 -> 72 ;
73 [label="gini = 0.0\nsamples = 2\nvalue = [0, 0, 2, 0]"] ;
72 -> 73 ;
74 [label="gini = 0.0\nsamples = 1\nvalue = [1, 0, 0, 0]"] ;
72 -> 74 ;
75 [label="X[6] <= 0.0025\ngini = 0.6484\nsamples = 32\nvalue = [10, 0, 8, 14]"] ;
51 -> 75 ;
76 [label="X[16] <= 4.1164\ngini = 0.6578\nsamples = 23\nvalue = [9, 0, 8, 6]"] ;
75 -> 76 ;
77 [label="X[1] <= 29.5563\ngini = 0.375\nsamples = 8\nvalue = [2, 0, 6, 0]"] ;
76 -> 77 ;
78 [label="gini = 0.0\nsamples = 5\nvalue = [0, 0, 5, 0]"] ;
77 -> 78 ;
79 [label="X[10] <= 0.2913\ngini = 0.4444\nsamples = 3\nvalue = [2, 0, 1, 0]"] ;
77 -> 79 ;
80 [label="gini = 0.0\nsamples = 1\nvalue = [0, 0, 1, 0]"] ;
79 -> 80 ;
81 [label="gini = 0.0\nsamples = 2\nvalue = [2, 0, 0, 0]"] ;
79 -> 81 ;
82 [label="X[10] <= 0.2848\ngini = 0.6044\nsamples = 15\nvalue = [7, 0, 2, 6]"] ;
76 -> 82 ;
83 [label="X[7] <= 322.317\ngini = 0.4938\nsamples = 9\nvalue = [6, 0, 2, 1]"] ;
82 -> 83 ;
84 [label="X[11] <= 181.279\ngini = 0.2449\nsamples = 7\nvalue = [6, 0, 0, 1]"] ;
83 -> 84 ;
85 [label="gini = 0.0\nsamples = 1\nvalue = [0, 0, 0, 1]"] ;
84 -> 85 ;
86 [label="gini = 0.0\nsamples = 6\nvalue = [6, 0, 0, 0]"] ;
84 -> 86 ;
87 [label="gini = 0.0\nsamples = 2\nvalue = [0, 0, 2, 0]"] ;
83 -> 87 ;
88 [label="X[1] <= 60.7028\ngini = 0.2778\nsamples = 6\nvalue = [1, 0, 0, 5]"] ;
82 -> 88 ;
89 [label="gini = 0.0\nsamples = 5\nvalue = [0, 0, 0, 5]"] ;
88 -> 89 ;
90 [label="gini = 0.0\nsamples = 1\nvalue = [1, 0, 0, 0]"] ;
88 -> 90 ;
91 [label="X[14] <= 10.8718\ngini = 0.1975\nsamples = 9\nvalue = [1, 0, 0, 8]"] ;
75 -> 91 ;
92 [label="gini = 0.0\nsamples = 1\nvalue = [1, 0, 0, 0]"] ;
91 -> 92 ;
93 [label="gini = 0.0\nsamples = 8\nvalue = [0, 0, 0, 8]"] ;
91 -> 93 ;
94 [label="X[16] <= 4.6706\ngini = 0.3343\nsamples = 140\nvalue = [112, 4, 22, 2]"] ;
2 -> 94 ;
95 [label="X[12] <= 20199.1816\ngini = 0.2851\nsamples = 135\nvalue = [112, 0, 22, 1]"] ;
94 -> 95 ;
96 [label="X[4] <= 87.0416\ngini = 0.1946\nsamples = 119\nvalue = [106, 0, 13, 0]"] ;
95 -> 96 ;
97 [label="X[5] <= 57.1253\ngini = 0.1588\nsamples = 115\nvalue = [105, 0, 10, 0]"] ;
96 -> 97 ;
98 [label="gini = 0.0\nsamples = 58\nvalue = [58, 0, 0, 0]"] ;
97 -> 98 ;
99 [label="X[1] <= 102.1361\ngini = 0.2893\nsamples = 57\nvalue = [47, 0, 10, 0]"] ;
97 -> 99 ;
100 [label="X[15] <= 0.0005\ngini = 0.4444\nsamples = 6\nvalue = [2, 0, 4, 0]"] ;
99 -> 100 ;
101 [label="gini = 0.0\nsamples = 2\nvalue = [2, 0, 0, 0]"] ;
100 -> 101 ;
102 [label="gini = 0.0\nsamples = 4\nvalue = [0, 0, 4, 0]"] ;
100 -> 102 ;
103 [label="X[8] <= 0.9319\ngini = 0.2076\nsamples = 51\nvalue = [45, 0, 6, 0]"] ;
99 -> 103 ;
104 [label="X[2] <= 153.3572\ngini = 0.4444\nsamples = 3\nvalue = [1, 0, 2, 0]"] ;
103 -> 104 ;
105 [label="gini = 0.0\nsamples = 2\nvalue = [0, 0, 2, 0]"] ;
104 -> 105 ;
106 [label="gini = 0.0\nsamples = 1\nvalue = [1, 0, 0, 0]"] ;
104 -> 106 ;
107 [label="X[5] <= 57.4262\ngini = 0.1528\nsamples = 48\nvalue = [44, 0, 4, 0]"] ;
103 -> 107 ;
108 [label="gini = 0.0\nsamples = 1\nvalue = [0, 0, 1, 0]"] ;
107 -> 108 ;
109 [label="X[13] <= 7.6768\ngini = 0.1195\nsamples = 47\nvalue = [44, 0, 3, 0]"] ;
107 -> 109 ;
110 [label="X[14] <= 10.301\ngini = 0.4082\nsamples = 7\nvalue = [5, 0, 2, 0]"] ;
109 -> 110 ;
111 [label="gini = 0.0\nsamples = 5\nvalue = [5, 0, 0, 0]"] ;
110 -> 111 ;
112 [label="gini = 0.0\nsamples = 2\nvalue = [0, 0, 2, 0]"] ;
110 -> 112 ;
113 [label="X[5] <= 77.8442\ngini = 0.0487\nsamples = 40\nvalue = [39, 0, 1, 0]"] ;
109 -> 113 ;
114 [label="gini = 0.0\nsamples = 36\nvalue = [36, 0, 0, 0]"] ;
113 -> 114 ;
115 [label="X[7] <= 301.4903\ngini = 0.375\nsamples = 4\nvalue = [3, 0, 1, 0]"] ;
113 -> 115 ;
116 [label="gini = 0.0\nsamples = 3\nvalue = [3, 0, 0, 0]"] ;
115 -> 116 ;
117 [label="gini = 0.0\nsamples = 1\nvalue = [0, 0, 1, 0]"] ;
115 -> 117 ;
118 [label="X[1] <= 119.0032\ngini = 0.375\nsamples = 4\nvalue = [1, 0, 3, 0]"] ;
96 -> 118 ;
119 [label="gini = 0.0\nsamples = 1\nvalue = [1, 0, 0, 0]"] ;
118 -> 119 ;
120 [label="gini = 0.0\nsamples = 3\nvalue = [0, 0, 3, 0]"] ;
118 -> 120 ;
121 [label="X[3] <= 20.7679\ngini = 0.5391\nsamples = 16\nvalue = [6, 0, 9, 1]"] ;
95 -> 121 ;
122 [label="X[2] <= 133.4037\ngini = 0.314\nsamples = 11\nvalue = [1, 0, 9, 1]"] ;
121 -> 122 ;
123 [label="X[3] <= 13.2453\ngini = 0.5\nsamples = 2\nvalue = [1, 0, 0, 1]"] ;
122 -> 123 ;
124 [label="gini = 0.0\nsamples = 1\nvalue = [1, 0, 0, 0]"] ;
123 -> 124 ;
125 [label="gini = 0.0\nsamples = 1\nvalue = [0, 0, 0, 1]"] ;
123 -> 125 ;
126 [label="gini = 0.0\nsamples = 9\nvalue = [0, 0, 9, 0]"] ;
122 -> 126 ;
127 [label="gini = 0.0\nsamples = 5\nvalue = [5, 0, 0, 0]"] ;
121 -> 127 ;
128 [label="X[10] <= 0.1961\ngini = 0.32\nsamples = 5\nvalue = [0, 4, 0, 1]"] ;
94 -> 128 ;
129 [label="gini = 0.0\nsamples = 4\nvalue = [0, 4, 0, 0]"] ;
128 -> 129 ;
130 [label="gini = 0.0\nsamples = 1\nvalue = [0, 0, 0, 1]"] ;
128 -> 130 ;
131 [label="X[1] <= 73.5033\ngini = 0.4873\nsamples = 291\nvalue = [44, 26, 20, 201]"] ;
1 -> 131 ;
132 [label="X[5] <= 86.487\ngini = 0.2661\nsamples = 195\nvalue = [12, 3, 14, 166]"] ;
131 -> 132 ;
133 [label="X[8] <= 0.7654\ngini = 0.2298\nsamples = 190\nvalue = [12, 2, 10, 166]"] ;
132 -> 133 ;
134 [label="gini = 0.0\nsamples = 4\nvalue = [4, 0, 0, 0]"] ;
133 -> 134 ;
135 [label="X[18] <= 0.9968\ngini = 0.1986\nsamples = 186\nvalue = [8, 2, 10, 166]"] ;
133 -> 135 ;
136 [label="X[10] <= 0.2048\ngini = 0.1389\nsamples = 164\nvalue = [6, 2, 4, 152]"] ;
135 -> 136 ;
137 [label="X[9] <= 4838.2871\ngini = 0.559\nsamples = 24\nvalue = [3, 2, 4, 15]"] ;
136 -> 137 ;
138 [label="X[16] <= 4.9372\ngini = 0.405\nsamples = 20\nvalue = [2, 0, 3, 15]"] ;
137 -> 138 ;
139 [label="X[6] <= 0.0005\ngini = 0.625\nsamples = 4\nvalue = [1, 0, 2, 1]"] ;
138 -> 139 ;
140 [label="X[14] <= 12.7654\ngini = 0.5\nsamples = 2\nvalue = [1, 0, 0, 1]"] ;
139 -> 140 ;
141 [label="gini = 0.0\nsamples = 1\nvalue = [0, 0, 0, 1]"] ;
140 -> 141 ;
142 [label="gini = 0.0\nsamples = 1\nvalue = [1, 0, 0, 0]"] ;
140 -> 142 ;
143 [label="gini = 0.0\nsamples = 2\nvalue = [0, 0, 2, 0]"] ;
139 -> 143 ;
144 [label="X[11] <= 189.0883\ngini = 0.2266\nsamples = 16\nvalue = [1, 0, 1, 14]"] ;
138 -> 144 ;
145 [label="gini = 0.0\nsamples = 1\nvalue = [0, 0, 1, 0]"] ;
144 -> 145 ;
146 [label="X[11] <= 279.3447\ngini = 0.1244\nsamples = 15\nvalue = [1, 0, 0, 14]"] ;
144 -> 146 ;
147 [label="gini = 0.0\nsamples = 14\nvalue = [0, 0, 0, 14]"] ;
146 -> 147 ;
148 [label="gini = 0.0\nsamples = 1\nvalue = [1, 0, 0, 0]"] ;
146 -> 148 ;
149 [label="X[5] <= 74.5842\ngini = 0.625\nsamples = 4\nvalue = [1, 2, 1, 0]"] ;
137 -> 149 ;
150 [label="X[7] <= 766.4783\ngini = 0.5\nsamples = 2\nvalue = [1, 0, 1, 0]"] ;
149 -> 150 ;
151 [label="gini = 0.0\nsamples = 1\nvalue = [1, 0, 0, 0]"] ;
150 -> 151 ;
152 [label="gini = 0.0\nsamples = 1\nvalue = [0, 0, 1, 0]"] ;
150 -> 152 ;
153 [label="gini = 0.0\nsamples = 2\nvalue = [0, 2, 0, 0]"] ;
149 -> 153 ;
154 [label="X[12] <= 4698.2192\ngini = 0.0419\nsamples = 140\nvalue = [3, 0, 0, 137]"] ;
136 -> 154 ;
155 [label="gini = 0.0\nsamples = 1\nvalue = [1, 0, 0, 0]"] ;
154 -> 155 ;
156 [label="X[4] <= 22.9128\ngini = 0.0284\nsamples = 139\nvalue = [2, 0, 0, 137]"] ;
154 -> 156 ;
157 [label="X[7] <= 489.706\ngini = 0.48\nsamples = 5\nvalue = [2, 0, 0, 3]"] ;
156 -> 157 ;
158 [label="gini = 0.0\nsamples = 2\nvalue = [2, 0, 0, 0]"] ;
157 -> 158 ;
159 [label="gini = 0.0\nsamples = 3\nvalue = [0, 0, 0, 3]"] ;
157 -> 159 ;
160 [label="gini = 0.0\nsamples = 134\nvalue = [0, 0, 0, 134]"] ;
156 -> 160 ;
161 [label="X[3] <= 48.1202\ngini = 0.5124\nsamples = 22\nvalue = [2, 0, 6, 14]"] ;
135 -> 161 ;
162 [label="X[2] <= 133.6139\ngini = 0.62\nsamples = 10\nvalue = [2, 0, 5, 3]"] ;
161 -> 162 ;
163 [label="X[17] <= -0.3709\ngini = 0.5\nsamples = 4\nvalue = [2, 0, 0, 2]"] ;
162 -> 163 ;
164 [label="gini = 0.0\nsamples = 2\nvalue = [2, 0, 0, 0]"] ;
163 -> 164 ;
165 [label="gini = 0.0\nsamples = 2\nvalue = [0, 0, 0, 2]"] ;
163 -> 165 ;
166 [label="X[15] <= 0.0006\ngini = 0.2778\nsamples = 6\nvalue = [0, 0, 5, 1]"] ;
162 -> 166 ;
167 [label="gini = 0.0\nsamples = 5\nvalue = [0, 0, 5, 0]"] ;
166 -> 167 ;
168 [label="gini = 0.0\nsamples = 1\nvalue = [0, 0, 0, 1]"] ;
166 -> 168 ;
169 [label="X[2] <= 175.6624\ngini = 0.1528\nsamples = 12\nvalue = [0, 0, 1, 11]"] ;
161 -> 169 ;
170 [label="gini = 0.0\nsamples = 11\nvalue = [0, 0, 0, 11]"] ;
169 -> 170 ;
171 [label="gini = 0.0\nsamples = 1\nvalue = [0, 0, 1, 0]"] ;
169 -> 171 ;
172 [label="X[11] <= 252.7254\ngini = 0.32\nsamples = 5\nvalue = [0, 1, 4, 0]"] ;
132 -> 172 ;
173 [label="gini = 0.0\nsamples = 1\nvalue = [0, 1, 0, 0]"] ;
172 -> 173 ;
174 [label="gini = 0.0\nsamples = 4\nvalue = [0, 0, 4, 0]"] ;
172 -> 174 ;
175 [label="X[1] <= 125.5205\ngini = 0.6947\nsamples = 96\nvalue = [32, 23, 6, 35]"] ;
131 -> 175 ;
176 [label="X[3] <= 27.8829\ngini = 0.6801\nsamples = 78\nvalue = [18, 19, 6, 35]"] ;
175 -> 176 ;
177 [label="X[11] <= 191.9877\ngini = 0.6746\nsamples = 26\nvalue = [9, 11, 3, 3]"] ;
176 -> 177 ;
178 [label="X[9] <= 2136.8799\ngini = 0.2188\nsamples = 8\nvalue = [0, 7, 1, 0]"] ;
177 -> 178 ;
179 [label="gini = 0.0\nsamples = 1\nvalue = [0, 0, 1, 0]"] ;
178 -> 179 ;
180 [label="gini = 0.0\nsamples = 7\nvalue = [0, 7, 0, 0]"] ;
178 -> 180 ;
181 [label="X[17] <= -0.2387\ngini = 0.6605\nsamples = 18\nvalue = [9, 4, 2, 3]"] ;
177 -> 181 ;
182 [label="X[5] <= 57.1934\ngini = 0.5\nsamples = 14\nvalue = [9, 4, 0, 1]"] ;
181 -> 182 ;
183 [label="gini = 0.0\nsamples = 6\nvalue = [6, 0, 0, 0]"] ;
182 -> 183 ;
184 [label="X[6] <= 0.0005\ngini = 0.5938\nsamples = 8\nvalue = [3, 4, 0, 1]"] ;
182 -> 184 ;
185 [label="gini = 0.0\nsamples = 3\nvalue = [3, 0, 0, 0]"] ;
184 -> 185 ;
186 [label="X[6] <= 0.0181\ngini = 0.32\nsamples = 5\nvalue = [0, 4, 0, 1]"] ;
184 -> 186 ;
187 [label="gini = 0.0\nsamples = 4\nvalue = [0, 4, 0, 0]"] ;
186 -> 187 ;
188 [label="gini = 0.0\nsamples = 1\nvalue = [0, 0, 0, 1]"] ;
186 -> 188 ;
189 [label="X[12] <= 9920.2549\ngini = 0.5\nsamples = 4\nvalue = [0, 0, 2, 2]"] ;
181 -> 189 ;
190 [label="gini = 0.0\nsamples = 2\nvalue = [0, 0, 0, 2]"] ;
189 -> 190 ;
191 [label="gini = 0.0\nsamples = 2\nvalue = [0, 0, 2, 0]"] ;
189 -> 191 ;
192 [label="X[15] <= 0.0001\ngini = 0.5643\nsamples = 52\nvalue = [9, 8, 3, 32]"] ;
176 -> 192 ;
193 [label="gini = 0.0\nsamples = 3\nvalue = [0, 3, 0, 0]"] ;
192 -> 193 ;
194 [label="X[12] <= 19461.1602\ngini = 0.5256\nsamples = 49\nvalue = [9, 5, 3, 32]"] ;
192 -> 194 ;
195 [label="X[0] <= 71.4872\ngini = 0.6327\nsamples = 36\nvalue = [9, 5, 3, 19]"] ;
194 -> 195 ;
196 [label="X[18] <= 0.9819\ngini = 0.4931\nsamples = 19\nvalue = [1, 2, 3, 13]"] ;
195 -> 196 ;
197 [label="gini = 0.0\nsamples = 2\nvalue = [0, 2, 0, 0]"] ;
196 -> 197 ;
198 [label="X[11] <= 257.4941\ngini = 0.3806\nsamples = 17\nvalue = [1, 0, 3, 13]"] ;
196 -> 198 ;
199 [label="X[7] <= 433.0891\ngini = 0.142\nsamples = 13\nvalue = [1, 0, 0, 12]"] ;
198 -> 199 ;
200 [label="gini = 0.0\nsamples = 1\nvalue = [1, 0, 0, 0]"] ;
199 -> 200 ;
201 [label="gini = 0.0\nsamples = 12\nvalue = [0, 0, 0, 12]"] ;
199 -> 201 ;
202 [label="X[12] <= 10742.0645\ngini = 0.375\nsamples = 4\nvalue = [0, 0, 3, 1]"] ;
198 -> 202 ;
203 [label="gini = 0.0\nsamples = 1\nvalue = [0, 0, 0, 1]"] ;
202 -> 203 ;
204 [label="gini = 0.0\nsamples = 3\nvalue = [0, 0, 3, 0]"] ;
202 -> 204 ;
205 [label="X[15] <= 0.0002\ngini = 0.6228\nsamples = 17\nvalue = [8, 3, 0, 6]"] ;
195 -> 205 ;
206 [label="gini = 0.0\nsamples = 5\nvalue = [5, 0, 0, 0]"] ;
205 -> 206 ;
207 [label="X[7] <= 429.4851\ngini = 0.625\nsamples = 12\nvalue = [3, 3, 0, 6]"] ;
205 -> 207 ;
208 [label="X[1] <= 86.1235\ngini = 0.375\nsamples = 4\nvalue = [3, 0, 0, 1]"] ;
207 -> 208 ;
209 [label="gini = 0.0\nsamples = 1\nvalue = [0, 0, 0, 1]"] ;
208 -> 209 ;
210 [label="gini = 0.0\nsamples = 3\nvalue = [3, 0, 0, 0]"] ;
208 -> 210 ;
211 [label="X[2] <= 128.5637\ngini = 0.4688\nsamples = 8\nvalue = [0, 3, 0, 5]"] ;
207 -> 211 ;
212 [label="X[1] <= 89.4353\ngini = 0.375\nsamples = 4\nvalue = [0, 3, 0, 1]"] ;
211 -> 212 ;
213 [label="gini = 0.0\nsamples = 3\nvalue = [0, 3, 0, 0]"] ;
212 -> 213 ;
214 [label="gini = 0.0\nsamples = 1\nvalue = [0, 0, 0, 1]"] ;
212 -> 214 ;
215 [label="gini = 0.0\nsamples = 4\nvalue = [0, 0, 0, 4]"] ;
211 -> 215 ;
216 [label="gini = 0.0\nsamples = 13\nvalue = [0, 0, 0, 13]"] ;
194 -> 216 ;
217 [label="X[17] <= -0.2533\ngini = 0.3457\nsamples = 18\nvalue = [14, 4, 0, 0]"] ;
175 -> 217 ;
218 [label="gini = 0.0\nsamples = 14\nvalue = [14, 0, 0, 0]"] ;
217 -> 218 ;
219 [label="gini = 0.0\nsamples = 4\nvalue = [0, 4, 0, 0]"] ;
217 -> 219 ;
220 [label="X[2] <= 180.0809\ngini = 0.0884\nsamples = 219\nvalue = [5, 209, 1, 4]"] ;
0 -> 220 [labeldistance=2.5, labelangle=-45, headlabel="False"] ;
221 [label="X[1] <= 33.7497\ngini = 0.0718\nsamples = 217\nvalue = [3, 209, 1, 4]"] ;
220 -> 221 ;
222 [label="X[10] <= 0.0927\ngini = 0.6122\nsamples = 7\nvalue = [1, 3, 0, 3]"] ;
221 -> 222 ;
223 [label="gini = 0.0\nsamples = 3\nvalue = [0, 3, 0, 0]"] ;
222 -> 223 ;
224 [label="X[5] <= 43.6939\ngini = 0.375\nsamples = 4\nvalue = [1, 0, 0, 3]"] ;
222 -> 224 ;
225 [label="gini = 0.0\nsamples = 1\nvalue = [1, 0, 0, 0]"] ;
224 -> 225 ;
226 [label="gini = 0.0\nsamples = 3\nvalue = [0, 0, 0, 3]"] ;
224 -> 226 ;
227 [label="X[15] <= 0.0002\ngini = 0.0376\nsamples = 210\nvalue = [2, 206, 1, 1]"] ;
221 -> 227 ;
228 [label="X[1] <= 53.6809\ngini = 0.0284\nsamples = 209\nvalue = [1, 206, 1, 1]"] ;
227 -> 228 ;
229 [label="X[4] <= 40.8012\ngini = 0.4167\nsamples = 12\nvalue = [1, 9, 1, 1]"] ;
228 -> 229 ;
230 [label="X[15] <= 0.0002\ngini = 0.18\nsamples = 10\nvalue = [0, 9, 1, 0]"] ;
229 -> 230 ;
231 [label="gini = 0.0\nsamples = 9\nvalue = [0, 9, 0, 0]"] ;
230 -> 231 ;
232 [label="gini = 0.0\nsamples = 1\nvalue = [0, 0, 1, 0]"] ;
230 -> 232 ;
233 [label="X[7] <= 1925.5962\ngini = 0.5\nsamples = 2\nvalue = [1, 0, 0, 1]"] ;
229 -> 233 ;
234 [label="gini = 0.0\nsamples = 1\nvalue = [0, 0, 0, 1]"] ;
233 -> 234 ;
235 [label="gini = 0.0\nsamples = 1\nvalue = [1, 0, 0, 0]"] ;
233 -> 235 ;
236 [label="gini = 0.0\nsamples = 197\nvalue = [0, 197, 0, 0]"] ;
228 -> 236 ;
237 [label="gini = 0.0\nsamples = 1\nvalue = [1, 0, 0, 0]"] ;
227 -> 237 ;
238 [label="gini = 0.0\nsamples = 2\nvalue = [2, 0, 0, 0]"] ;
220 -> 238 ;
}